{"input_nodes":6,"hidden_nodes":12,"output_nodes":1,"weights_ih":{"rows":12,"cols":6,"data":[[0.6879621565460523,-0.815742462171281,-0.8087067072164822,-0.35850546018998974,-0.4537370647290464,0.13774662051341835],[-0.3305060377944775,-0.012273145647682782,-0.041208554859973656,-0.12016069255954465,-0.9855416387429301,0.6688674632495011],[-0.32673853852211465,0.6832589907642177,-0.6958487856090234,0.11726343501298153,-0.3776939154632166,0.8930621621347123],[-0.6422465889376348,-0.16151316013236006,-0.0227965754003292,-0.8675849375268831,0.22741697820384,0.2770529227536169],[0.43078506859614674,0.47825590650234195,-0.8522283798133499,0.11856010644258363,0.47391393914467894,-0.23413531341771998],[0.4931775047987714,-0.6796338668572561,-0.6708895000566293,0.672999889644299,0.7829172639431068,0.9388185784812815],[0.3181281912783436,0.3966481822340424,0.7887613759780585,-0.06546446524759375,0.5163646502788977,-0.7348335790802136],[-0.4311526611880776,0.32498854459131277,-0.5336660717559485,-0.4214760372200437,0.46091635189034363,-0.039471736175253014],[0.4823261477918863,0.728126073711171,0.04502603905247948,-0.5075543802322011,-0.5574014518502612,0.3889381665806688],[-0.49330787946875354,-0.45840857597656415,0.42167363679582603,0.36008823399439915,-0.8603368628279369,0.5424233984585944],[-0.5995034608870751,-0.7960176652369744,0.029575745190759672,0.47679523082786135,-0.6853164273864483,0.5560755318881054],[-0.18109300533386374,-0.14501324731661214,-0.41615823771269334,-0.14118664511288914,0.8486001005229169,-0.9396723445537911]]},"weights_ho":{"rows":1,"cols":12,"data":[[0.37014776866740107,0.058280035548671005,-0.3204096565878558,-0.2571631533927614,-0.6026153013078295,-0.5186990990015432,0.050537200312733344,0.555788655172492,-0.9103734500975293,0.16499175365687924,0.9303953955345703,0.4126814392352012]]},"bias_h":{"rows":12,"cols":1,"data":[[-0.10793768737985898],[-0.3772820848428369],[0.9686070840514005],[0.19494638832320188],[0.09419015577857293],[0.29706985482189596],[-0.18868820572590383],[0.37464462050150216],[0.35191259267717623],[-0.8268903044027129],[-0.43621281872274853],[0.7546218873581019]]},"bias_o":{"rows":1,"cols":1,"data":[[0.017664846627277075]]},"learning_rate":0.1,"activation_function":{}}