{
    "input_nodes": 6,
    "hidden_nodes": 12,
    "output_nodes": 1,
    "weights_ih": {
        "rows": 12,
        "cols": 6,
        "data": [
            [
                0.5122358291119165,
                -0.7952892149193116,
                -0.3883303199823458,
                0.7105683223746069,
                0.9248245682983138,
                -0.9403733804845165
            ],
            [
                0.34004458252301717,
                -0.21819644401976346,
                0.4574206965919827,
                -0.7420201305214125,
                0.0284207092290516,
                -0.39021517646669146
            ],
            [
                0.9139657554427081,
                -0.37115122884288754,
                0.8721247419137423,
                0.4710612330389745,
                0.29762624758132894,
                -0.6151825980537251
            ],
            [
                -0.8293977952009883,
                -0.030568517272518303,
                0.474331339322033,
                -0.03190166196711086,
                0.6073856455148738,
                -0.0422308921842518
            ],
            [
                -0.8279698778507729,
                -0.5324868342924245,
                0.9930977400496297,
                -0.662606015898056,
                -0.21052983919404333,
                0.9859043470566835
            ],
            [
                -0.9143178054098406,
                -0.13867399524498802,
                -0.13212717042677014,
                0.9353817990892193,
                -0.03399398639620621,
                0.3917596919706421
            ],
            [
                -0.8336639732255988,
                0.4697754637403513,
                -0.15134435352572106,
                -0.21704990722729844,
                -0.9940602701765808,
                0.4942900796368219
            ],
            [
                -0.053054280511329655,
                -0.8298845261513641,
                -0.719196409352163,
                -0.24297873040975304,
                -0.9148119993741992,
                0.7373328561379915
            ],
            [
                0.6344884820606249,
                -0.5789179255370338,
                -0.3872392971591636,
                0.2116398519130369,
                0.08536872228712422,
                0.9513964431718653
            ],
            [
                -0.4074577754860984,
                0.6446326678714693,
                0.977264020874129,
                0.19755838147090454,
                0.1037236790046272,
                -0.3666458052527144
            ],
            [
                0.7749131316346207,
                0.783315023765367,
                -0.7386133316652335,
                -0.7671606904060049,
                0.011044440621089446,
                -0.5534010775804186
            ],
            [
                0.3990466700066979,
                0.8126314900770608,
                0.6794879319437701,
                0.6586975047161867,
                0.847057088063969,
                0.6632168114601176
            ]
        ]
    },
    "weights_ho": {
        "rows": 1,
        "cols": 12,
        "data": [
            [
                0.019576722790432655,
                0.3391821357047071,
                0.17156570788536607,
                -0.3877018703637831,
                0.6433626454072834,
                0.9959663238953587,
                -0.12312382401000654,
                0.6122410903736388,
                0.8307845161086993,
                -0.6910297471695701,
                -0.9756500948368632,
                -0.8932549569564756
            ]
        ]
    },
    "bias_h": {
        "rows": 12,
        "cols": 1,
        "data": [
            [
                0.20330991288301314
            ],
            [
                -0.2731864949175944
            ],
            [
                -0.5536487119521096
            ],
            [
                -0.13628624878699647
            ],
            [
                -0.4244479853378196
            ],
            [
                0.8947071634476629
            ],
            [
                -0.8916192735149862
            ],
            [
                -0.47031671126572316
            ],
            [
                0.28038118801464185
            ],
            [
                0.03778517410601889
            ],
            [
                0.8310220617054593
            ],
            [
                -0.13363480527934035
            ]
        ]
    },
    "bias_o": {
        "rows": 1,
        "cols": 1,
        "data": [
            [
                -0.06033591092771662
            ]
        ]
    },
    "learning_rate": 0.1,
    "activation_function": {

    }
}